<?xml version="1.0"?>
<opencv_storage>
<stage3>
  <maxWeakCount>5</maxWeakCount>
  <stageThreshold>7.3159253224730492e-04</stageThreshold>
  <weakClassifiers>
    <_>
      <internalNodes>
        0 -1 323475 -6.5597775392234325e-04</internalNodes>
      <leafValues>
        -9.7727274894714355e-01 7.7667981386184692e-01</leafValues></_>
    <_>
      <internalNodes>
        0 -1 301477 6.5122107043862343e-03</internalNodes>
      <leafValues>
        5.7980459928512573e-01 -8.4624147415161133e-01</leafValues></_>
    <_>
      <internalNodes>
        0 -1 473144 3.1777594238519669e-02</internalNodes>
      <leafValues>
        -6.2601017951965332e-01 4.6601051092147827e-01</leafValues></_>
    <_>
      <internalNodes>
        0 -1 162926 8.1052202731370926e-03</internalNodes>
      <leafValues>
        -8.5126364231109619e-01 3.7256127595901489e-01</leafValues></_>
    <_>
      <internalNodes>
        0 -1 435267 1.8148498609662056e-02</internalNodes>
      <leafValues>
        -5.8449298143386841e-01 4.5554634928703308e-01</leafValues></_></weakClassifiers></stage3>
</opencv_storage>
